<?xml version="1.0"?>
<opencv_storage>
<stage7>
  <maxWeakCount>5</maxWeakCount>
  <stageThreshold>-1.4253104925155640e+00</stageThreshold>
  <weakClassifiers>
    <_>
      <internalNodes>
        0 -1 27141 9.4247400760650635e-02</internalNodes>
      <leafValues>
        -8.2195121049880981e-01 7.1428573131561279e-01</leafValues></_>
    <_>
      <internalNodes>
        0 -1 1976 2.7907939627766609e-02</internalNodes>
      <leafValues>
        -6.9750744104385376e-01 1.5944561362266541e-01</leafValues></_>
    <_>
      <internalNodes>
        0 -1 13655 -1.4150972128845751e-04</internalNodes>
      <leafValues>
        3.3893942832946777e-01 -5.9084343910217285e-01</leafValues></_>
    <_>
      <internalNodes>
        0 -1 7699 2.6922993361949921e-02</internalNodes>
      <leafValues>
        -3.9897727966308594e-01 5.9741884469985962e-01</leafValues></_>
    <_>
      <internalNodes>
        0 -1 3565 5.3462816867977381e-04</internalNodes>
      <leafValues>
        3.2121345400810242e-01 -8.4221011400222778e-01</leafValues></_></weakClassifiers></stage7>
</opencv_storage>
