<?xml version="1.0"?>
<opencv_storage>
<stage5>
  <maxWeakCount>6</maxWeakCount>
  <stageThreshold>-2.2244567871093750e+00</stageThreshold>
  <weakClassifiers>
    <_>
      <internalNodes>
        0 -1 724 9.2062377929687500e-01</internalNodes>
      <leafValues>
        -8.2216811180114746e-01 8.0000001192092896e-01</leafValues></_>
    <_>
      <internalNodes>
        0 -1 24123 6.2568984925746918e-02</internalNodes>
      <leafValues>
        -7.6002025604248047e-01 3.5678517818450928e-01</leafValues></_>
    <_>
      <internalNodes>
        0 -1 11779 2.0193915814161301e-02</internalNodes>
      <leafValues>
        -7.5718581676483154e-01 3.2053899765014648e-01</leafValues></_>
    <_>
      <internalNodes>
        0 -1 31364 4.5166059862822294e-04</internalNodes>
      <leafValues>
        2.4855481088161469e-01 -8.2539969682693481e-01</leafValues></_>
    <_>
      <internalNodes>
        0 -1 4 4.7778669977560639e-04</internalNodes>
      <leafValues>
        2.1022166311740875e-01 -9.5520728826522827e-01</leafValues></_>
    <_>
      <internalNodes>
        0 -1 8297 -3.5415783524513245e-02</internalNodes>
      <leafValues>
        6.8199038505554199e-01 -3.4762924909591675e-01</leafValues></_></weakClassifiers></stage5>
</opencv_storage>
