<?xml version="1.0"?>
<opencv_storage>
<stage3>
  <maxWeakCount>5</maxWeakCount>
  <stageThreshold>-1.4154672622680664e+00</stageThreshold>
  <weakClassifiers>
    <_>
      <internalNodes>
        0 -1 15325 2.0310828089714050e-01</internalNodes>
      <leafValues>
        -8.5561835765838623e-01 5.0561797618865967e-01</leafValues></_>
    <_>
      <internalNodes>
        0 -1 16945 1.0341398417949677e-01</internalNodes>
      <leafValues>
        -7.4956071376800537e-01 3.2687568664550781e-01</leafValues></_>
    <_>
      <internalNodes>
        0 -1 24232 1.0604429990053177e-02</internalNodes>
      <leafValues>
        -7.7864336967468262e-01 4.1651448607444763e-01</leafValues></_>
    <_>
      <internalNodes>
        0 -1 163 2.5870031677186489e-03</internalNodes>
      <leafValues>
        -6.0624086856842041e-01 5.6296819448471069e-01</leafValues></_>
    <_>
      <internalNodes>
        0 -1 16801 4.3169241398572922e-03</internalNodes>
      <leafValues>
        -6.0733574628829956e-01 4.9815964698791504e-01</leafValues></_></weakClassifiers></stage3>
</opencv_storage>
